Language model created by QuickLM on Wed Oct 14 18:28:17 EDT 2015
Copyright (c) 1996-2010 Carnegie Mellon University and Alexander I. Rudnicky

The model is in standard ARPA format, designed by Doug Paul while he was at MITRE.

The code that was used to produce this language model is available in Open Source.
Please visit http://www.speech.cs.cmu.edu/tools/ for more information

The (fixed) discount mass is 0.5. The backoffs are computed using the ratio method.
This model based on a corpus of 186 sentences and 187 words

\data\
ngram 1=187
ngram 2=370
ngram 3=185

\1-grams:
-0.7782 </s> -0.3010
-0.7782 <s> -0.2218
-3.0477 A -0.2218
-3.0477 AN -0.2218
-3.0477 ARE -0.2218
-3.0477 AUDIO -0.2218
-3.0477 BABY -0.2218
-3.0477 BACK -0.2218
-3.0477 BAD -0.2218
-3.0477 BE -0.2218
-3.0477 BEAR -0.2218
-3.0477 BEAUTIFUL -0.2218
-3.0477 BEING -0.2218
-3.0477 BIRD -0.2218
-3.0477 BIRTHDAY -0.2218
-3.0477 BOAT -0.2218
-3.0477 BOY -0.2218
-3.0477 BUT -0.2218
-3.0477 BYE -0.2218
-3.0477 BYEBYE -0.2218
-3.0477 CAR -0.2218
-3.0477 CAT -0.2218
-3.0477 CHECK -0.2218
-3.0477 CHEESE -0.2218
-3.0477 CHILD -0.2218
-3.0477 CIRCLE -0.2218
-3.0477 CLEAR -0.2218
-3.0477 CLOTHSE -0.2218
-3.0477 COME -0.2218
-3.0477 CRY -0.2218
-3.0477 DANCE -0.2218
-3.0477 DID -0.2218
-3.0477 DO -0.2218
-3.0477 DOES -0.2218
-3.0477 DOG -0.2218
-3.0477 DOOR -0.2218
-3.0477 DOT -0.2218
-3.0477 DRINK -0.2218
-3.0477 DSAH -0.2218
-3.0477 EAT -0.2218
-3.0477 EIGHT -0.2218
-3.0477 EMAIL -0.2218
-3.0477 EYES -0.2218
-3.0477 FIRE -0.2218
-3.0477 FIRST -0.2218
-3.0477 FISH -0.2218
-3.0477 FISHING -0.2218
-3.0477 FIVE -0.2218
-3.0477 FLOWER -0.2218
-3.0477 FLY -0.2218
-3.0477 FOOT -0.2218
-3.0477 FOR -0.2218
-3.0477 FORWARD -0.2218
-3.0477 FOUR -0.2218
-3.0477 FRIDAY -0.2218
-3.0477 FRIEND -0.2218
-3.0477 GAME -0.2218
-3.0477 GIRL -0.2218
-3.0477 GIVE -0.2218
-3.0477 GO -0.2218
-3.0477 GOING -0.2218
-3.0477 GOOD -0.2218
-3.0477 HAHA -0.2218
-3.0477 HAND -0.2218
-3.0477 HAPPY -0.2218
-3.0477 HELLO -0.2218
-3.0477 HELP -0.2218
-3.0477 HERE -0.2218
-3.0477 HI -0.2218
-3.0477 HIKING -0.2218
-3.0477 HOLD -0.2218
-3.0477 HUG -0.2218
-3.0477 HUMAN -0.2218
-3.0477 HUNGRY -0.2218
-3.0477 I -0.2218
-3.0477 IN -0.2218
-3.0477 INBOX -0.2218
-3.0477 INTRODUCE -0.2218
-3.0477 IS -0.2218
-3.0477 IT -0.2218
-3.0477 JOB -0.2218
-3.0477 KIDS -0.2218
-3.0477 KNOCK -0.2218
-3.0477 LAUGH -0.2218
-3.0477 LEAVE -0.2218
-3.0477 LEFT -0.2218
-3.0477 LIFE -0.2218
-3.0477 LIKE -0.2218
-3.0477 LIST -0.2218
-3.0477 LOVE -0.2218
-3.0477 LUCKY -0.2218
-3.0477 MAN -0.2218
-3.0477 ME -0.2218
-3.0477 MEANING -0.2218
-3.0477 MEET -0.2218
-3.0477 MEN -0.2218
-3.0477 MISS -0.2218
-3.0477 MONDAY -0.2218
-3.0477 MONKEY -0.2218
-3.0477 MONTH -0.2218
-3.0477 MOUTH -0.2218
-3.0477 MOVE -0.2218
-3.0477 MUSIC -0.2218
-3.0477 NAME -0.2218
-3.0477 NEXT -0.2218
-3.0477 NICE -0.2218
-3.0477 NINE -0.2218
-3.0477 NOSE -0.2218
-2.7466 NOW -0.2218
-3.0477 OF -0.2218
-3.0477 OFF -0.2218
-3.0477 OLD -0.2218
-3.0477 ON -0.2218
-3.0477 ONE -0.2218
-3.0477 OVER -0.2218
-3.0477 PEOPLE -0.2218
-3.0477 PERSON -0.2218
-3.0477 PLACE -0.2218
-3.0477 PLAY -0.2218
-3.0477 PLEASE -0.2218
-3.0477 POWER -0.2218
-3.0477 POWEROFF -0.2218
-3.0477 RIGHT -0.2218
-3.0477 ROLL -0.2218
-3.0477 ROOM -0.2218
-3.0477 ROSE -0.2218
-3.0477 RUN -0.2218
-3.0477 SAD -0.2218
-3.0477 SATURDAY -0.2218
-3.0477 SAY -0.2218
-3.0477 SEEYOU -0.2218
-3.0477 SEVEN -0.2218
-3.0477 SHIP -0.2218
-3.0477 SHIRT -0.2218
-3.0477 SHOES -0.2218
-3.0477 SHUTDOWN -0.2218
-3.0477 SING -0.2218
-3.0477 SIX -0.2218
-3.0477 SLEEP -0.2218
-3.0477 SLEEPY -0.2218
-3.0477 SMART -0.2218
-3.0477 SMILE -0.2218
-3.0477 SONG -0.2218
-3.0477 SPACE -0.2218
-3.0477 SPOTIFY -0.2218
-3.0477 STAY -0.2218
-3.0477 STOP -0.2218
-3.0477 STORY -0.2218
-3.0477 SUNDAY -0.2218
-3.0477 TALK -0.2218
-3.0477 TELL -0.2218
-3.0477 TEN -0.2218
-3.0477 THANK -0.2218
-3.0477 THANKS -0.2218
-3.0477 THERE -0.2218
-3.0477 THREE -0.2218
-3.0477 THURSDAY -0.2218
-3.0477 TIME -0.2218
-3.0477 TO -0.2218
-3.0477 TODAY -0.2218
-3.0477 TOMORROW -0.2218
-3.0477 TRAIN -0.2218
-3.0477 TREE -0.2218
-3.0477 TRICK -0.2218
-3.0477 TRY -0.2218
-3.0477 TUESDAY -0.2218
-3.0477 TURN -0.2218
-3.0477 TWO -0.2218
-3.0477 VIDEO -0.2218
-3.0477 WALK -0.2218
-3.0477 WAS -0.2218
-3.0477 WATER -0.2218
-3.0477 WEATHER -0.2218
-3.0477 WENSDAY -0.2218
-3.0477 WHAT -0.2218
-3.0477 WHAT'S -0.2218
-3.0477 WHICH -0.2218
-3.0477 WHO -0.2218
-3.0477 WITH -0.2218
-3.0477 WOMAN -0.2218
-3.0477 WOMEN -0.2218
-3.0477 WORK -0.2218
-3.0477 YEAR -0.2218
-3.0477 YOU -0.2218
-3.0477 YOUR -0.2218
-3.0477 YOURSELF -0.2218
-3.0477 ZERO -0.2218

\2-grams:
-2.5705 <s> A 0.0000
-2.5705 <s> AN 0.0000
-2.5705 <s> ARE 0.0000
-2.5705 <s> AUDIO 0.0000
-2.5705 <s> BABY 0.0000
-2.5705 <s> BACK 0.0000
-2.5705 <s> BAD 0.0000
-2.5705 <s> BE 0.0000
-2.5705 <s> BEAR 0.0000
-2.5705 <s> BEAUTIFUL 0.0000
-2.5705 <s> BEING 0.0000
-2.5705 <s> BIRD 0.0000
-2.5705 <s> BIRTHDAY 0.0000
-2.5705 <s> BOAT 0.0000
-2.5705 <s> BOY 0.0000
-2.5705 <s> BUT 0.0000
-2.5705 <s> BYE 0.0000
-2.5705 <s> BYEBYE 0.0000
-2.5705 <s> CAR 0.0000
-2.5705 <s> CAT 0.0000
-2.5705 <s> CHECK 0.0000
-2.5705 <s> CHEESE 0.0000
-2.5705 <s> CHILD 0.0000
-2.5705 <s> CIRCLE 0.0000
-2.5705 <s> CLEAR 0.0000
-2.5705 <s> CLOTHSE 0.0000
-2.5705 <s> COME 0.0000
-2.5705 <s> CRY 0.0000
-2.5705 <s> DANCE 0.0000
-2.5705 <s> DID 0.0000
-2.5705 <s> DO 0.0000
-2.5705 <s> DOES 0.0000
-2.5705 <s> DOG 0.0000
-2.5705 <s> DOOR 0.0000
-2.5705 <s> DOT 0.0000
-2.5705 <s> DRINK 0.0000
-2.5705 <s> DSAH 0.0000
-2.5705 <s> EAT 0.0000
-2.5705 <s> EIGHT 0.0000
-2.5705 <s> EMAIL 0.0000
-2.5705 <s> EYES 0.0000
-2.5705 <s> FIRE 0.0000
-2.5705 <s> FIRST 0.0000
-2.5705 <s> FISH 0.0000
-2.5705 <s> FISHING 0.0000
-2.5705 <s> FIVE 0.0000
-2.5705 <s> FLOWER 0.0000
-2.5705 <s> FLY 0.0000
-2.5705 <s> FOOT 0.0000
-2.5705 <s> FOR 0.0000
-2.5705 <s> FORWARD 0.0000
-2.5705 <s> FOUR 0.0000
-2.5705 <s> FRIDAY 0.0000
-2.5705 <s> FRIEND 0.0000
-2.5705 <s> GAME 0.0000
-2.5705 <s> GIRL 0.0000
-2.5705 <s> GIVE 0.0000
-2.5705 <s> GO 0.0000
-2.5705 <s> GOING 0.0000
-2.5705 <s> GOOD 0.0000
-2.5705 <s> HAHA 0.0000
-2.5705 <s> HAND 0.0000
-2.5705 <s> HAPPY 0.0000
-2.5705 <s> HELLO 0.0000
-2.5705 <s> HELP 0.0000
-2.5705 <s> HERE 0.0000
-2.5705 <s> HI 0.0000
-2.5705 <s> HIKING 0.0000
-2.5705 <s> HOLD 0.0000
-2.5705 <s> HUG 0.0000
-2.5705 <s> HUMAN 0.0000
-2.5705 <s> HUNGRY 0.0000
-2.5705 <s> I 0.0000
-2.5705 <s> IN 0.0000
-2.5705 <s> INBOX 0.0000
-2.5705 <s> INTRODUCE 0.0000
-2.5705 <s> IS 0.0000
-2.5705 <s> IT 0.0000
-2.5705 <s> JOB 0.0000
-2.5705 <s> KIDS 0.0000
-2.5705 <s> KNOCK 0.0000
-2.5705 <s> LAUGH 0.0000
-2.5705 <s> LEAVE 0.0000
-2.5705 <s> LEFT 0.0000
-2.5705 <s> LIFE 0.0000
-2.5705 <s> LIKE 0.0000
-2.5705 <s> LIST 0.0000
-2.5705 <s> LOVE 0.0000
-2.5705 <s> LUCKY 0.0000
-2.5705 <s> MAN 0.0000
-2.5705 <s> ME 0.0000
-2.5705 <s> MEANING 0.0000
-2.5705 <s> MEET 0.0000
-2.5705 <s> MEN 0.0000
-2.5705 <s> MISS 0.0000
-2.5705 <s> MONDAY 0.0000
-2.5705 <s> MONKEY 0.0000
-2.5705 <s> MONTH 0.0000
-2.5705 <s> MOUTH 0.0000
-2.5705 <s> MOVE 0.0000
-2.5705 <s> MUSIC 0.0000
-2.5705 <s> NAME 0.0000
-2.5705 <s> NEXT 0.0000
-2.5705 <s> NICE 0.0000
-2.5705 <s> NINE 0.0000
-2.5705 <s> NOSE 0.0000
-2.2695 <s> NOW 0.0000
-2.5705 <s> OF 0.0000
-2.5705 <s> OFF 0.0000
-2.5705 <s> OLD 0.0000
-2.5705 <s> ON 0.0000
-2.5705 <s> ONE 0.0000
-2.5705 <s> OVER 0.0000
-2.5705 <s> PEOPLE 0.0000
-2.5705 <s> PERSON 0.0000
-2.5705 <s> PLACE 0.0000
-2.5705 <s> PLAY 0.0000
-2.5705 <s> PLEASE 0.0000
-2.5705 <s> POWER 0.0000
-2.5705 <s> POWEROFF 0.0000
-2.5705 <s> RIGHT 0.0000
-2.5705 <s> ROLL 0.0000
-2.5705 <s> ROOM 0.0000
-2.5705 <s> ROSE 0.0000
-2.5705 <s> RUN 0.0000
-2.5705 <s> SAD 0.0000
-2.5705 <s> SATURDAY 0.0000
-2.5705 <s> SAY 0.0000
-2.5705 <s> SEEYOU 0.0000
-2.5705 <s> SEVEN 0.0000
-2.5705 <s> SHIP 0.0000
-2.5705 <s> SHIRT 0.0000
-2.5705 <s> SHOES 0.0000
-2.5705 <s> SHUTDOWN 0.0000
-2.5705 <s> SING 0.0000
-2.5705 <s> SIX 0.0000
-2.5705 <s> SLEEP 0.0000
-2.5705 <s> SLEEPY 0.0000
-2.5705 <s> SMART 0.0000
-2.5705 <s> SMILE 0.0000
-2.5705 <s> SONG 0.0000
-2.5705 <s> SPACE 0.0000
-2.5705 <s> SPOTIFY 0.0000
-2.5705 <s> STAY 0.0000
-2.5705 <s> STOP 0.0000
-2.5705 <s> STORY 0.0000
-2.5705 <s> SUNDAY 0.0000
-2.5705 <s> TALK 0.0000
-2.5705 <s> TELL 0.0000
-2.5705 <s> TEN 0.0000
-2.5705 <s> THANK 0.0000
-2.5705 <s> THANKS 0.0000
-2.5705 <s> THERE 0.0000
-2.5705 <s> THREE 0.0000
-2.5705 <s> THURSDAY 0.0000
-2.5705 <s> TIME 0.0000
-2.5705 <s> TO 0.0000
-2.5705 <s> TODAY 0.0000
-2.5705 <s> TOMORROW 0.0000
-2.5705 <s> TRAIN 0.0000
-2.5705 <s> TREE 0.0000
-2.5705 <s> TRICK 0.0000
-2.5705 <s> TRY 0.0000
-2.5705 <s> TUESDAY 0.0000
-2.5705 <s> TURN 0.0000
-2.5705 <s> TWO 0.0000
-2.5705 <s> VIDEO 0.0000
-2.5705 <s> WALK 0.0000
-2.5705 <s> WAS 0.0000
-2.5705 <s> WATER 0.0000
-2.5705 <s> WEATHER 0.0000
-2.5705 <s> WENSDAY 0.0000
-2.5705 <s> WHAT 0.0000
-2.5705 <s> WHAT'S 0.0000
-2.5705 <s> WHICH 0.0000
-2.5705 <s> WHO 0.0000
-2.5705 <s> WITH 0.0000
-2.5705 <s> WOMAN 0.0000
-2.5705 <s> WOMEN 0.0000
-2.5705 <s> WORK 0.0000
-2.5705 <s> YEAR 0.0000
-2.5705 <s> YOU 0.0000
-2.5705 <s> YOUR 0.0000
-2.5705 <s> YOURSELF 0.0000
-2.5705 <s> ZERO 0.0000
-0.3010 A </s> -0.3010
-0.3010 AN </s> -0.3010
-0.3010 ARE </s> -0.3010
-0.3010 AUDIO </s> -0.3010
-0.3010 BABY </s> -0.3010
-0.3010 BACK </s> -0.3010
-0.3010 BAD </s> -0.3010
-0.3010 BE </s> -0.3010
-0.3010 BEAR </s> -0.3010
-0.3010 BEAUTIFUL </s> -0.3010
-0.3010 BEING </s> -0.3010
-0.3010 BIRD </s> -0.3010
-0.3010 BIRTHDAY </s> -0.3010
-0.3010 BOAT </s> -0.3010
-0.3010 BOY </s> -0.3010
-0.3010 BUT </s> -0.3010
-0.3010 BYE </s> -0.3010
-0.3010 BYEBYE </s> -0.3010
-0.3010 CAR </s> -0.3010
-0.3010 CAT </s> -0.3010
-0.3010 CHECK </s> -0.3010
-0.3010 CHEESE </s> -0.3010
-0.3010 CHILD </s> -0.3010
-0.3010 CIRCLE </s> -0.3010
-0.3010 CLEAR </s> -0.3010
-0.3010 CLOTHSE </s> -0.3010
-0.3010 COME </s> -0.3010
-0.3010 CRY </s> -0.3010
-0.3010 DANCE </s> -0.3010
-0.3010 DID </s> -0.3010
-0.3010 DO </s> -0.3010
-0.3010 DOES </s> -0.3010
-0.3010 DOG </s> -0.3010
-0.3010 DOOR </s> -0.3010
-0.3010 DOT </s> -0.3010
-0.3010 DRINK </s> -0.3010
-0.3010 DSAH </s> -0.3010
-0.3010 EAT </s> -0.3010
-0.3010 EIGHT </s> -0.3010
-0.3010 EMAIL </s> -0.3010
-0.3010 EYES </s> -0.3010
-0.3010 FIRE </s> -0.3010
-0.3010 FIRST </s> -0.3010
-0.3010 FISH </s> -0.3010
-0.3010 FISHING </s> -0.3010
-0.3010 FIVE </s> -0.3010
-0.3010 FLOWER </s> -0.3010
-0.3010 FLY </s> -0.3010
-0.3010 FOOT </s> -0.3010
-0.3010 FOR </s> -0.3010
-0.3010 FORWARD </s> -0.3010
-0.3010 FOUR </s> -0.3010
-0.3010 FRIDAY </s> -0.3010
-0.3010 FRIEND </s> -0.3010
-0.3010 GAME </s> -0.3010
-0.3010 GIRL </s> -0.3010
-0.3010 GIVE </s> -0.3010
-0.3010 GO </s> -0.3010
-0.3010 GOING </s> -0.3010
-0.3010 GOOD </s> -0.3010
-0.3010 HAHA </s> -0.3010
-0.3010 HAND </s> -0.3010
-0.3010 HAPPY </s> -0.3010
-0.3010 HELLO </s> -0.3010
-0.3010 HELP </s> -0.3010
-0.3010 HERE </s> -0.3010
-0.3010 HI </s> -0.3010
-0.3010 HIKING </s> -0.3010
-0.3010 HOLD </s> -0.3010
-0.3010 HUG </s> -0.3010
-0.3010 HUMAN </s> -0.3010
-0.3010 HUNGRY </s> -0.3010
-0.3010 I </s> -0.3010
-0.3010 IN </s> -0.3010
-0.3010 INBOX </s> -0.3010
-0.3010 INTRODUCE </s> -0.3010
-0.3010 IS </s> -0.3010
-0.3010 IT </s> -0.3010
-0.3010 JOB </s> -0.3010
-0.3010 KIDS </s> -0.3010
-0.3010 KNOCK </s> -0.3010
-0.3010 LAUGH </s> -0.3010
-0.3010 LEAVE </s> -0.3010
-0.3010 LEFT </s> -0.3010
-0.3010 LIFE </s> -0.3010
-0.3010 LIKE </s> -0.3010
-0.3010 LIST </s> -0.3010
-0.3010 LOVE </s> -0.3010
-0.3010 LUCKY </s> -0.3010
-0.3010 MAN </s> -0.3010
-0.3010 ME </s> -0.3010
-0.3010 MEANING </s> -0.3010
-0.3010 MEET </s> -0.3010
-0.3010 MEN </s> -0.3010
-0.3010 MISS </s> -0.3010
-0.3010 MONDAY </s> -0.3010
-0.3010 MONKEY </s> -0.3010
-0.3010 MONTH </s> -0.3010
-0.3010 MOUTH </s> -0.3010
-0.3010 MOVE </s> -0.3010
-0.3010 MUSIC </s> -0.3010
-0.3010 NAME </s> -0.3010
-0.3010 NEXT </s> -0.3010
-0.3010 NICE </s> -0.3010
-0.3010 NINE </s> -0.3010
-0.3010 NOSE </s> -0.3010
-0.3010 NOW </s> -0.3010
-0.3010 OF </s> -0.3010
-0.3010 OFF </s> -0.3010
-0.3010 OLD </s> -0.3010
-0.3010 ON </s> -0.3010
-0.3010 ONE </s> -0.3010
-0.3010 OVER </s> -0.3010
-0.3010 PEOPLE </s> -0.3010
-0.3010 PERSON </s> -0.3010
-0.3010 PLACE </s> -0.3010
-0.3010 PLAY </s> -0.3010
-0.3010 PLEASE </s> -0.3010
-0.3010 POWER </s> -0.3010
-0.3010 POWEROFF </s> -0.3010
-0.3010 RIGHT </s> -0.3010
-0.3010 ROLL </s> -0.3010
-0.3010 ROOM </s> -0.3010
-0.3010 ROSE </s> -0.3010
-0.3010 RUN </s> -0.3010
-0.3010 SAD </s> -0.3010
-0.3010 SATURDAY </s> -0.3010
-0.3010 SAY </s> -0.3010
-0.3010 SEEYOU </s> -0.3010
-0.3010 SEVEN </s> -0.3010
-0.3010 SHIP </s> -0.3010
-0.3010 SHIRT </s> -0.3010
-0.3010 SHOES </s> -0.3010
-0.3010 SHUTDOWN </s> -0.3010
-0.3010 SING </s> -0.3010
-0.3010 SIX </s> -0.3010
-0.3010 SLEEP </s> -0.3010
-0.3010 SLEEPY </s> -0.3010
-0.3010 SMART </s> -0.3010
-0.3010 SMILE </s> -0.3010
-0.3010 SONG </s> -0.3010
-0.3010 SPACE </s> -0.3010
-0.3010 SPOTIFY </s> -0.3010
-0.3010 STAY </s> -0.3010
-0.3010 STOP </s> -0.3010
-0.3010 STORY </s> -0.3010
-0.3010 SUNDAY </s> -0.3010
-0.3010 TALK </s> -0.3010
-0.3010 TELL </s> -0.3010
-0.3010 TEN </s> -0.3010
-0.3010 THANK </s> -0.3010
-0.3010 THANKS </s> -0.3010
-0.3010 THERE </s> -0.3010
-0.3010 THREE </s> -0.3010
-0.3010 THURSDAY </s> -0.3010
-0.3010 TIME </s> -0.3010
-0.3010 TO </s> -0.3010
-0.3010 TODAY </s> -0.3010
-0.3010 TOMORROW </s> -0.3010
-0.3010 TRAIN </s> -0.3010
-0.3010 TREE </s> -0.3010
-0.3010 TRICK </s> -0.3010
-0.3010 TRY </s> -0.3010
-0.3010 TUESDAY </s> -0.3010
-0.3010 TURN </s> -0.3010
-0.3010 TWO </s> -0.3010
-0.3010 VIDEO </s> -0.3010
-0.3010 WALK </s> -0.3010
-0.3010 WAS </s> -0.3010
-0.3010 WATER </s> -0.3010
-0.3010 WEATHER </s> -0.3010
-0.3010 WENSDAY </s> -0.3010
-0.3010 WHAT </s> -0.3010
-0.3010 WHAT'S </s> -0.3010
-0.3010 WHICH </s> -0.3010
-0.3010 WHO </s> -0.3010
-0.3010 WITH </s> -0.3010
-0.3010 WOMAN </s> -0.3010
-0.3010 WOMEN </s> -0.3010
-0.3010 WORK </s> -0.3010
-0.3010 YEAR </s> -0.3010
-0.3010 YOU </s> -0.3010
-0.3010 YOUR </s> -0.3010
-0.3010 YOURSELF </s> -0.3010
-0.3010 ZERO </s> -0.3010

\3-grams:
-0.3010 <s> A </s>
-0.3010 <s> AN </s>
-0.3010 <s> ARE </s>
-0.3010 <s> AUDIO </s>
-0.3010 <s> BABY </s>
-0.3010 <s> BACK </s>
-0.3010 <s> BAD </s>
-0.3010 <s> BE </s>
-0.3010 <s> BEAR </s>
-0.3010 <s> BEAUTIFUL </s>
-0.3010 <s> BEING </s>
-0.3010 <s> BIRD </s>
-0.3010 <s> BIRTHDAY </s>
-0.3010 <s> BOAT </s>
-0.3010 <s> BOY </s>
-0.3010 <s> BUT </s>
-0.3010 <s> BYE </s>
-0.3010 <s> BYEBYE </s>
-0.3010 <s> CAR </s>
-0.3010 <s> CAT </s>
-0.3010 <s> CHECK </s>
-0.3010 <s> CHEESE </s>
-0.3010 <s> CHILD </s>
-0.3010 <s> CIRCLE </s>
-0.3010 <s> CLEAR </s>
-0.3010 <s> CLOTHSE </s>
-0.3010 <s> COME </s>
-0.3010 <s> CRY </s>
-0.3010 <s> DANCE </s>
-0.3010 <s> DID </s>
-0.3010 <s> DO </s>
-0.3010 <s> DOES </s>
-0.3010 <s> DOG </s>
-0.3010 <s> DOOR </s>
-0.3010 <s> DOT </s>
-0.3010 <s> DRINK </s>
-0.3010 <s> DSAH </s>
-0.3010 <s> EAT </s>
-0.3010 <s> EIGHT </s>
-0.3010 <s> EMAIL </s>
-0.3010 <s> EYES </s>
-0.3010 <s> FIRE </s>
-0.3010 <s> FIRST </s>
-0.3010 <s> FISH </s>
-0.3010 <s> FISHING </s>
-0.3010 <s> FIVE </s>
-0.3010 <s> FLOWER </s>
-0.3010 <s> FLY </s>
-0.3010 <s> FOOT </s>
-0.3010 <s> FOR </s>
-0.3010 <s> FORWARD </s>
-0.3010 <s> FOUR </s>
-0.3010 <s> FRIDAY </s>
-0.3010 <s> FRIEND </s>
-0.3010 <s> GAME </s>
-0.3010 <s> GIRL </s>
-0.3010 <s> GIVE </s>
-0.3010 <s> GO </s>
-0.3010 <s> GOING </s>
-0.3010 <s> GOOD </s>
-0.3010 <s> HAHA </s>
-0.3010 <s> HAND </s>
-0.3010 <s> HAPPY </s>
-0.3010 <s> HELLO </s>
-0.3010 <s> HELP </s>
-0.3010 <s> HERE </s>
-0.3010 <s> HI </s>
-0.3010 <s> HIKING </s>
-0.3010 <s> HOLD </s>
-0.3010 <s> HUG </s>
-0.3010 <s> HUMAN </s>
-0.3010 <s> HUNGRY </s>
-0.3010 <s> I </s>
-0.3010 <s> IN </s>
-0.3010 <s> INBOX </s>
-0.3010 <s> INTRODUCE </s>
-0.3010 <s> IS </s>
-0.3010 <s> IT </s>
-0.3010 <s> JOB </s>
-0.3010 <s> KIDS </s>
-0.3010 <s> KNOCK </s>
-0.3010 <s> LAUGH </s>
-0.3010 <s> LEAVE </s>
-0.3010 <s> LEFT </s>
-0.3010 <s> LIFE </s>
-0.3010 <s> LIKE </s>
-0.3010 <s> LIST </s>
-0.3010 <s> LOVE </s>
-0.3010 <s> LUCKY </s>
-0.3010 <s> MAN </s>
-0.3010 <s> ME </s>
-0.3010 <s> MEANING </s>
-0.3010 <s> MEET </s>
-0.3010 <s> MEN </s>
-0.3010 <s> MISS </s>
-0.3010 <s> MONDAY </s>
-0.3010 <s> MONKEY </s>
-0.3010 <s> MONTH </s>
-0.3010 <s> MOUTH </s>
-0.3010 <s> MOVE </s>
-0.3010 <s> MUSIC </s>
-0.3010 <s> NAME </s>
-0.3010 <s> NEXT </s>
-0.3010 <s> NICE </s>
-0.3010 <s> NINE </s>
-0.3010 <s> NOSE </s>
-0.3010 <s> NOW </s>
-0.3010 <s> OF </s>
-0.3010 <s> OFF </s>
-0.3010 <s> OLD </s>
-0.3010 <s> ON </s>
-0.3010 <s> ONE </s>
-0.3010 <s> OVER </s>
-0.3010 <s> PEOPLE </s>
-0.3010 <s> PERSON </s>
-0.3010 <s> PLACE </s>
-0.3010 <s> PLAY </s>
-0.3010 <s> PLEASE </s>
-0.3010 <s> POWER </s>
-0.3010 <s> POWEROFF </s>
-0.3010 <s> RIGHT </s>
-0.3010 <s> ROLL </s>
-0.3010 <s> ROOM </s>
-0.3010 <s> ROSE </s>
-0.3010 <s> RUN </s>
-0.3010 <s> SAD </s>
-0.3010 <s> SATURDAY </s>
-0.3010 <s> SAY </s>
-0.3010 <s> SEEYOU </s>
-0.3010 <s> SEVEN </s>
-0.3010 <s> SHIP </s>
-0.3010 <s> SHIRT </s>
-0.3010 <s> SHOES </s>
-0.3010 <s> SHUTDOWN </s>
-0.3010 <s> SING </s>
-0.3010 <s> SIX </s>
-0.3010 <s> SLEEP </s>
-0.3010 <s> SLEEPY </s>
-0.3010 <s> SMART </s>
-0.3010 <s> SMILE </s>
-0.3010 <s> SONG </s>
-0.3010 <s> SPACE </s>
-0.3010 <s> SPOTIFY </s>
-0.3010 <s> STAY </s>
-0.3010 <s> STOP </s>
-0.3010 <s> STORY </s>
-0.3010 <s> SUNDAY </s>
-0.3010 <s> TALK </s>
-0.3010 <s> TELL </s>
-0.3010 <s> TEN </s>
-0.3010 <s> THANK </s>
-0.3010 <s> THANKS </s>
-0.3010 <s> THERE </s>
-0.3010 <s> THREE </s>
-0.3010 <s> THURSDAY </s>
-0.3010 <s> TIME </s>
-0.3010 <s> TO </s>
-0.3010 <s> TODAY </s>
-0.3010 <s> TOMORROW </s>
-0.3010 <s> TRAIN </s>
-0.3010 <s> TREE </s>
-0.3010 <s> TRICK </s>
-0.3010 <s> TRY </s>
-0.3010 <s> TUESDAY </s>
-0.3010 <s> TURN </s>
-0.3010 <s> TWO </s>
-0.3010 <s> VIDEO </s>
-0.3010 <s> WALK </s>
-0.3010 <s> WAS </s>
-0.3010 <s> WATER </s>
-0.3010 <s> WEATHER </s>
-0.3010 <s> WENSDAY </s>
-0.3010 <s> WHAT </s>
-0.3010 <s> WHAT'S </s>
-0.3010 <s> WHICH </s>
-0.3010 <s> WHO </s>
-0.3010 <s> WITH </s>
-0.3010 <s> WOMAN </s>
-0.3010 <s> WOMEN </s>
-0.3010 <s> WORK </s>
-0.3010 <s> YEAR </s>
-0.3010 <s> YOU </s>
-0.3010 <s> YOUR </s>
-0.3010 <s> YOURSELF </s>
-0.3010 <s> ZERO </s>

\end\
