Language model created by QuickLM on Wed Sep  9 03:29:02 EDT 2015
Copyright (c) 1996-2010 Carnegie Mellon University and Alexander I. Rudnicky

The model is in standard ARPA format, designed by Doug Paul while he was at MITRE.

The code that was used to produce this language model is available in Open Source.
Please visit http://www.speech.cs.cmu.edu/tools/ for more information

The (fixed) discount mass is 0.5. The backoffs are computed using the ratio method.
This model based on a corpus of 62 sentences and 62 words

\data\
ngram 1=62
ngram 2=120
ngram 3=61

\1-grams:
-0.7805 </s> -0.3010
-0.7805 <s> -0.2209
-2.5729 BABBLING -0.2223
-2.5729 BACK -0.2223
-2.5729 BE -0.2223
-2.5729 BEING -0.2223
-2.5729 BUT -0.2223
-2.5729 BYE -0.2223
-2.5729 BYEBYE -0.2223
-2.5729 CIRCLE -0.2223
-2.5729 DANCE -0.2223
-2.5729 DID -0.2223
-2.5729 FIRST -0.2223
-2.5729 FORWARD -0.2223
-2.5729 FRIEND -0.2223
-2.5729 GAME -0.2223
-2.5729 GOOD -0.2223
-2.5729 HELLO -0.2223
-2.5729 HI -0.2223
-2.5729 HUG -0.2223
-2.5729 HUNGRY -0.2223
-2.5729 IN -0.2223
-2.5729 IS -0.2223
-2.5729 IT -0.2223
-2.5729 LEFT -0.2223
-2.5729 LOVE -0.2223
-2.5729 ME -0.2223
-2.5729 MEET -0.2223
-2.5729 MISS -0.2223
-2.5729 MOVE -0.2223
-2.5729 MUSIC -0.2223
-2.5729 NICE -0.2223
-2.5729 NOW -0.2223
-2.5729 OF -0.2223
-2.5729 ON -0.2223
-2.5729 ON(2) -0.2223
-2.5729 PLAY -0.2223
-2.2718 RIGHT -0.2223
-2.5729 RUN -0.2223
-2.5729 SAY -0.2223
-2.5729 SEEYOU -0.2223
-2.5729 SHUTDOWN -0.2223
-2.5729 SING -0.2223
-2.5729 SLEEP -0.2223
-2.5729 SONG -0.2223
-2.5729 STAY -0.2223
-2.5729 STOP -0.2223
-2.5729 STORY -0.2223
-2.5729 THANK -0.2975
-2.5729 THANKS -0.2223
-2.5729 TIME -0.2223
-2.5729 TO -0.2223
-2.5729 TRICK -0.2223
-2.5729 WEATHER -0.2223
-2.5729 WHAT -0.2223
-2.5729 WHAT(2) -0.2223
-2.5729 WHICH -0.2223
-2.5729 WHICH(2) -0.2223
-2.5729 WITH -0.2223
-2.5729 WITH(2) -0.2223
-2.5729 WORK -0.2223
-2.0958 YOU -0.2223

\2-grams:
-2.0934 <s> BABBLING 0.0000
-2.0934 <s> BACK 0.0000
-2.0934 <s> BE 0.0000
-2.0934 <s> BEING 0.0000
-2.0934 <s> BUT 0.0000
-2.0934 <s> BYE 0.0000
-2.0934 <s> BYEBYE 0.0000
-2.0934 <s> CIRCLE 0.0000
-2.0934 <s> DANCE 0.0000
-2.0934 <s> DID 0.0000
-2.0934 <s> FIRST 0.0000
-2.0934 <s> FORWARD 0.0000
-2.0934 <s> FRIEND 0.0000
-2.0934 <s> GAME 0.0000
-2.0934 <s> GOOD 0.0000
-2.0934 <s> HELLO 0.0000
-2.0934 <s> HI 0.0000
-2.0934 <s> HUG 0.0000
-2.0934 <s> HUNGRY 0.0000
-2.0934 <s> IN 0.0000
-2.0934 <s> IS 0.0000
-2.0934 <s> IT 0.0000
-2.0934 <s> LEFT 0.0000
-2.0934 <s> LOVE 0.0000
-2.0934 <s> ME 0.0000
-2.0934 <s> MEET 0.0000
-2.0934 <s> MISS 0.0000
-2.0934 <s> MOVE 0.0000
-2.0934 <s> MUSIC 0.0000
-2.0934 <s> NICE 0.0000
-2.0934 <s> NOW 0.0000
-2.0934 <s> OF 0.0000
-2.0934 <s> ON 0.0000
-2.0934 <s> ON(2) 0.0000
-2.0934 <s> PLAY 0.0000
-1.7924 <s> RIGHT 0.0000
-2.0934 <s> RUN 0.0000
-2.0934 <s> SAY 0.0000
-2.0934 <s> SEEYOU 0.0000
-2.0934 <s> SHUTDOWN 0.0000
-2.0934 <s> SING 0.0000
-2.0934 <s> SLEEP 0.0000
-2.0934 <s> SONG 0.0000
-2.0934 <s> STAY 0.0000
-2.0934 <s> STOP 0.0000
-2.0934 <s> STORY 0.0000
-2.0934 <s> THANK 0.0000
-2.0934 <s> THANKS 0.0000
-2.0934 <s> TIME 0.0000
-2.0934 <s> TO 0.0000
-2.0934 <s> TRICK 0.0000
-2.0934 <s> WEATHER 0.0000
-2.0934 <s> WHAT 0.0000
-2.0934 <s> WHAT(2) 0.0000
-2.0934 <s> WHICH 0.0000
-2.0934 <s> WHICH(2) 0.0000
-2.0934 <s> WITH 0.0000
-2.0934 <s> WITH(2) 0.0000
-2.0934 <s> WORK 0.0000
-1.7924 <s> YOU 0.0000
-0.3010 BABBLING </s> -0.3010
-0.3010 BACK </s> -0.3010
-0.3010 BE </s> -0.3010
-0.3010 BEING </s> -0.3010
-0.3010 BUT </s> -0.3010
-0.3010 BYE </s> -0.3010
-0.3010 BYEBYE </s> -0.3010
-0.3010 CIRCLE </s> -0.3010
-0.3010 DANCE </s> -0.3010
-0.3010 DID </s> -0.3010
-0.3010 FIRST </s> -0.3010
-0.3010 FORWARD </s> -0.3010
-0.3010 FRIEND </s> -0.3010
-0.3010 GAME </s> -0.3010
-0.3010 GOOD </s> -0.3010
-0.3010 HELLO </s> -0.3010
-0.3010 HI </s> -0.3010
-0.3010 HUG </s> -0.3010
-0.3010 HUNGRY </s> -0.3010
-0.3010 IN </s> -0.3010
-0.3010 IS </s> -0.3010
-0.3010 IT </s> -0.3010
-0.3010 LEFT </s> -0.3010
-0.3010 LOVE </s> -0.3010
-0.3010 ME </s> -0.3010
-0.3010 MEET </s> -0.3010
-0.3010 MISS </s> -0.3010
-0.3010 MOVE </s> -0.3010
-0.3010 MUSIC </s> -0.3010
-0.3010 NICE </s> -0.3010
-0.3010 NOW </s> -0.3010
-0.3010 OF </s> -0.3010
-0.3010 ON </s> -0.3010
-0.3010 ON(2) </s> -0.3010
-0.3010 PLAY </s> -0.3010
-0.3010 RIGHT </s> -0.3010
-0.3010 RUN </s> -0.3010
-0.3010 SAY </s> -0.3010
-0.3010 SEEYOU </s> -0.3010
-0.3010 SHUTDOWN </s> -0.3010
-0.3010 SING </s> -0.3010
-0.3010 SLEEP </s> -0.3010
-0.3010 SONG </s> -0.3010
-0.3010 STAY </s> -0.3010
-0.3010 STOP </s> -0.3010
-0.3010 STORY </s> -0.3010
-0.3010 THANK YOU 0.0000
-0.3010 THANKS </s> -0.3010
-0.3010 TIME </s> -0.3010
-0.3010 TO </s> -0.3010
-0.3010 TRICK </s> -0.3010
-0.3010 WEATHER </s> -0.3010
-0.3010 WHAT </s> -0.3010
-0.3010 WHAT(2) </s> -0.3010
-0.3010 WHICH </s> -0.3010
-0.3010 WHICH(2) </s> -0.3010
-0.3010 WITH </s> -0.3010
-0.3010 WITH(2) </s> -0.3010
-0.3010 WORK </s> -0.3010
-0.3010 YOU </s> -0.3010

\3-grams:
-0.3010 <s> BABBLING </s>
-0.3010 <s> BACK </s>
-0.3010 <s> BE </s>
-0.3010 <s> BEING </s>
-0.3010 <s> BUT </s>
-0.3010 <s> BYE </s>
-0.3010 <s> BYEBYE </s>
-0.3010 <s> CIRCLE </s>
-0.3010 <s> DANCE </s>
-0.3010 <s> DID </s>
-0.3010 <s> FIRST </s>
-0.3010 <s> FORWARD </s>
-0.3010 <s> FRIEND </s>
-0.3010 <s> GAME </s>
-0.3010 <s> GOOD </s>
-0.3010 <s> HELLO </s>
-0.3010 <s> HI </s>
-0.3010 <s> HUG </s>
-0.3010 <s> HUNGRY </s>
-0.3010 <s> IN </s>
-0.3010 <s> IS </s>
-0.3010 <s> IT </s>
-0.3010 <s> LEFT </s>
-0.3010 <s> LOVE </s>
-0.3010 <s> ME </s>
-0.3010 <s> MEET </s>
-0.3010 <s> MISS </s>
-0.3010 <s> MOVE </s>
-0.3010 <s> MUSIC </s>
-0.3010 <s> NICE </s>
-0.3010 <s> NOW </s>
-0.3010 <s> OF </s>
-0.3010 <s> ON </s>
-0.3010 <s> ON(2) </s>
-0.3010 <s> PLAY </s>
-0.3010 <s> RIGHT </s>
-0.3010 <s> RUN </s>
-0.3010 <s> SAY </s>
-0.3010 <s> SEEYOU </s>
-0.3010 <s> SHUTDOWN </s>
-0.3010 <s> SING </s>
-0.3010 <s> SLEEP </s>
-0.3010 <s> SONG </s>
-0.3010 <s> STAY </s>
-0.3010 <s> STOP </s>
-0.3010 <s> STORY </s>
-0.3010 <s> THANK YOU
-0.3010 <s> THANKS </s>
-0.3010 <s> TIME </s>
-0.3010 <s> TO </s>
-0.3010 <s> TRICK </s>
-0.3010 <s> WEATHER </s>
-0.3010 <s> WHAT </s>
-0.3010 <s> WHAT(2) </s>
-0.3010 <s> WHICH </s>
-0.3010 <s> WHICH(2) </s>
-0.3010 <s> WITH </s>
-0.3010 <s> WITH(2) </s>
-0.3010 <s> WORK </s>
-0.3010 <s> YOU </s>
-0.3010 THANK YOU </s>

\end\
